<?xml version="1.0"?>
<opencv_storage>
<cascade>
  <stageType>BOOST</stageType>
  <featureType>LBP</featureType>
  <height>35</height>
  <width>45</width>
  <stageParams>
    <boostType>GAB</boostType>
    <minHitRate>9.9500000476837158e-01</minHitRate>
    <maxFalseAlarm>5.0000000000000000e-01</maxFalseAlarm>
    <weightTrimRate>9.4999999999999996e-01</weightTrimRate>
    <maxDepth>1</maxDepth>
    <maxWeakCount>100</maxWeakCount></stageParams>
  <featureParams>
    <maxCatCount>256</maxCatCount>
    <featSize>1</featSize></featureParams>
  <stageNum>12</stageNum>
  <stages>
    <!-- stage 0 -->
    <_>
      <maxWeakCount>3</maxWeakCount>
      <stageThreshold>-2.0684187412261963e+00</stageThreshold>
      <weakClassifiers>
        <_>
          <internalNodes>
            0 -1 7 -203424769 -10528861 -922505257 -14732193 -74785793
            -82577005 -1148196097 -5248001</internalNodes>
          <leafValues>
            -9.6426248550415039e-01 -2.0000000298023224e-01</leafValues></_>
        <_>
          <internalNodes>
            0 -1 18 -150995585 -136902177 -39746561 -1210584673
            -73794818 -4484697 -24916993 -805902850</internalNodes>
          <leafValues>
            -9.0622413158416748e-01 5.9909991919994354e-02</leafValues></_>
        <_>
          <internalNodes>
            0 -1 1 -2171052 -15369 1360189919 1071109119 1602996987
            -40120169 600820727 872090335</internalNodes>
          <leafValues>
            -9.6219468116760254e-01 2.0401836931705475e-01</leafValues></_></weakClassifiers></_>
    <!-- stage 1 -->
    <_>
      <maxWeakCount>4</maxWeakCount>
      <stageThreshold>-2.3083038330078125e+00</stageThreshold>
      <weakClassifiers>
        <_>
          <internalNodes>
            0 -1 23 -67108865 -674245121 -787484325 -738469949 -1056785
            -70276981 -931930373 -1</internalNodes>
          <leafValues>
            -9.5473384857177734e-01 3.8461539149284363e-01</leafValues></_>
        <_>
          <internalNodes>
            0 -1 14 -12633 -1350566433 1808763855 1071638423 -536904738
            -91263283 -555797633 -8209</internalNodes>
          <leafValues>
            -9.0240430831909180e-01 6.9104477763175964e-02</leafValues></_>
        <_>
          <internalNodes>
            0 -1 31 -1344291137 -85986849 -741358661 -2106389 -70552721
            -85234269 -576988169 2147483645</internalNodes>
          <leafValues>
            -9.1279011964797974e-01 3.0665066838264465e-01</leafValues></_>
        <_>
          <internalNodes>
            0 -1 3 -26267883 1599787518 -947599969 -84159489 -1142982695
            1825790151 -69469705 -142639145</internalNodes>
          <leafValues>
            -8.4699368476867676e-01 4.6162432432174683e-01</leafValues></_></weakClassifiers></_>
    <!-- stage 2 -->
    <_>
      <maxWeakCount>3</maxWeakCount>
      <stageThreshold>-1.9656510353088379e+00</stageThreshold>
      <weakClassifiers>
        <_>
          <internalNodes>
            0 -1 6 -524289 -539107457 -738397185 -2632193 -23332865
            -71574049 -7341057 -1073</internalNodes>
          <leafValues>
            -9.5636832714080811e-01 -8.6956523358821869e-02</leafValues></_>
        <_>
          <internalNodes>
            0 -1 34 -268501001 -16793601 -690105385 -35687201
            -1142161554 -33289 -74457351 2080374783</internalNodes>
          <leafValues>
            -9.2942738533020020e-01 -1.0810847580432892e-01</leafValues></_>
        <_>
          <internalNodes>
            0 -1 15 -88080401 -1351681538 -572556323 -83895332 -19169409
            -67113365 -306184201 2061500413</internalNodes>
          <leafValues>
            -9.0117424726486206e-01 2.8743851184844971e-01</leafValues></_></weakClassifiers></_>
    <!-- stage 3 -->
    <_>
      <maxWeakCount>3</maxWeakCount>
      <stageThreshold>-1.8954119682312012e+00</stageThreshold>
      <weakClassifiers>
        <_>
          <internalNodes>
            0 -1 30 -2097185 -539495585 -644230657 -35654953 -106169345
            -286493 -62129153 -1281</internalNodes>
          <leafValues>
            -9.5294117927551270e-01 6.6666668653488159e-01</leafValues></_>
        <_>
          <internalNodes>
            0 -1 29 -687871553 2144768445 -504252965 2147451278
            -1077019649 -1081472869 -695645761 1270832895</internalNodes>
          <leafValues>
            -9.2544031143188477e-01 2.0769986440427601e-04</leafValues></_>
        <_>
          <internalNodes>
            0 -1 4 2010111638 -589327393 1438898655 1972796598 -75531281
            -70527831 -1182156593 1363148381</internalNodes>
          <leafValues>
            -9.4267851114273071e-01 2.5530466437339783e-01</leafValues></_></weakClassifiers></_>
    <!-- stage 4 -->
    <_>
      <maxWeakCount>3</maxWeakCount>
      <stageThreshold>-1.8855609893798828e+00</stageThreshold>
      <weakClassifiers>
        <_>
          <internalNodes>
            0 -1 16 -538968065 -538970649 -1126971425 -2106529 -12583425
            -4467745 -69280769 -2106369</internalNodes>
          <leafValues>
            -9.5819938182830811e-01 -9.4339624047279358e-02</leafValues></_>
        <_>
          <internalNodes>
            0 -1 0 -188743745 -1075853325 -614474241 -8849414 -369362017
            -1343555553 -376456194 -1074267650</internalNodes>
          <leafValues>
            -8.8196158409118652e-01 4.2661692947149277e-02</leafValues></_>
        <_>
          <internalNodes>
            0 -1 17 -2166913 -23145985 -719850026 -16794626 -83886275
            2143264395 -538969354 1862269951</internalNodes>
          <leafValues>
            -9.0925979614257812e-01 2.8974103927612305e-01</leafValues></_></weakClassifiers></_>
    <!-- stage 5 -->
    <_>
      <maxWeakCount>3</maxWeakCount>
      <stageThreshold>-1.7276463508605957e+00</stageThreshold>
      <weakClassifiers>
        <_>
          <internalNodes>
            0 -1 33 -33 -2097401 -249563905 -19457 -86574145 -6555159
            -95420961 -33554449</internalNodes>
          <leafValues>
            -9.6045380830764771e-01 -2.8205129504203796e-01</leafValues></_>
        <_>
          <internalNodes>
            0 -1 9 -134225925 -176443409 -64160265 -100671569 -312541797
            2142756739 -1208352850 -541713</internalNodes>
          <leafValues>
            -8.5526365041732788e-01 1.2604348361492157e-01</leafValues></_>
        <_>
          <internalNodes>
            0 -1 28 -8433682 2142238714 -1211245194 -4199457 -337641481
            -289439844 -219218180 -1192116746</internalNodes>
          <leafValues>
            -8.9323604106903076e-01 2.6987239718437195e-01</leafValues></_></weakClassifiers></_>
    <!-- stage 6 -->
    <_>
      <maxWeakCount>3</maxWeakCount>
      <stageThreshold>-1.6273937225341797e+00</stageThreshold>
      <weakClassifiers>
        <_>
          <internalNodes>
            0 -1 5 -33554433 -536871937 -47188001 -2101281 -68157505
            -41367331 -536870913 -67108881</internalNodes>
          <leafValues>
            -9.5224452018737793e-01 2.7272728085517883e-01</leafValues></_>
        <_>
          <internalNodes>
            0 -1 24 -1 2147482591 -549502985 -9175073 -136855809
            -11020131 -287838273 -876615953</internalNodes>
          <leafValues>
            -8.3808922767639160e-01 1.9005766510963440e-01</leafValues></_>
        <_>
          <internalNodes>
            0 -1 27 -16842843 1876407263 -577551026 -270534755
            2140829687 -71571304 -1712129 -134422540</internalNodes>
          <leafValues>
            -8.6520689725875854e-01 3.1479570269584656e-01</leafValues></_></weakClassifiers></_>
    <!-- stage 7 -->
    <_>
      <maxWeakCount>3</maxWeakCount>
      <stageThreshold>-1.7667139768600464e+00</stageThreshold>
      <weakClassifiers>
        <_>
          <internalNodes>
            0 -1 11 -134218241 -543427937 -906113059 -71304737 -5518881
            -4336454 -2113541 -1025</internalNodes>
          <leafValues>
            -9.5634031295776367e-01 -1.2500000000000000e-01</leafValues></_>
        <_>
          <internalNodes>
            0 -1 22 1471934239 2011141015 -1625580865 -2140241 -70255109
            -75768833 -39059798 -528453</internalNodes>
          <leafValues>
            -8.5092324018478394e-01 9.1778472065925598e-02</leafValues></_>
        <_>
          <internalNodes>
            0 -1 32 -20027463 -90253314 -112011297 -335611169
            -1821376771 -136079185 -203490434 2130705406</internalNodes>
          <leafValues>
            -9.0215212106704712e-01 2.7817997336387634e-01</leafValues></_></weakClassifiers></_>
    <!-- stage 8 -->
    <_>
      <maxWeakCount>3</maxWeakCount>
      <stageThreshold>-2.1051166057586670e+00</stageThreshold>
      <weakClassifiers>
        <_>
          <internalNodes>
            0 -1 11 -134221313 -538971745 -302126083 -67109985 -73411073
            -282467 -525317 -1</internalNodes>
          <leafValues>
            -9.5810508728027344e-01 -2.0000000298023224e-01</leafValues></_>
        <_>
          <internalNodes>
            0 -1 21 -805327977 -4325898 2146279157 -1076412933
            -1076102145 -1090683457 -1360048129 1543496447</internalNodes>
          <leafValues>
            -9.3208724260330200e-01 -2.1069383621215820e-01</leafValues></_>
        <_>
          <internalNodes>
            0 -1 2 -145346961 2128608225 -67052058 2062547862 -67240998
            -269767687 -140935265 2004220927</internalNodes>
          <leafValues>
            -9.3631780147552490e-01 1.8824625015258789e-01</leafValues></_></weakClassifiers></_>
    <!-- stage 9 -->
    <_>
      <maxWeakCount>3</maxWeakCount>
      <stageThreshold>-2.0098111629486084e+00</stageThreshold>
      <weakClassifiers>
        <_>
          <internalNodes>
            0 -1 13 -169871361 -69207073 -714882089 -672140425
            -103968001 -68175633 -216019973 -257</internalNodes>
          <leafValues>
            -9.5342904329299927e-01 1.4285714924335480e-01</leafValues></_>
        <_>
          <internalNodes>
            0 -1 35 -1090582533 -1375775745 -267788801 -18940417
            519044092 -7961925 -40899330 -2162817</internalNodes>
          <leafValues>
            -9.0804362297058105e-01 -1.4046601951122284e-01</leafValues></_>
        <_>
          <internalNodes>
            0 -1 8 -294986636 1610080151 -171451428 -1076699189
            991928831 -4526167 -16778101 1576468465</internalNodes>
          <leafValues>
            -9.1591608524322510e-01 2.0438288152217865e-01</leafValues></_></weakClassifiers></_>
    <!-- stage 10 -->
    <_>
      <maxWeakCount>3</maxWeakCount>
      <stageThreshold>-1.7397890090942383e+00</stageThreshold>
      <weakClassifiers>
        <_>
          <internalNodes>
            0 -1 10 -1 -79700769 -146451521 -537535077 -336331265
            -1349798725 -544212225 -1048577</internalNodes>
          <leafValues>
            -9.5399361848831177e-01 3.0303031206130981e-02</leafValues></_>
        <_>
          <internalNodes>
            0 -1 12 -27272481 -23332385 -818685481 -2886695 -38013954
            -21001317 -281297922 -4206637</internalNodes>
          <leafValues>
            -8.3312433958053589e-01 1.4631286263465881e-01</leafValues></_>
        <_>
          <internalNodes>
            0 -1 26 -1895839877 -270863885 -1644585986 -671091217
            2076163710 2142977711 -69214338 2146828016</internalNodes>
          <leafValues>
            -9.3210828304290771e-01 2.3402521014213562e-01</leafValues></_></weakClassifiers></_>
    <!-- stage 11 -->
    <_>
      <maxWeakCount>3</maxWeakCount>
      <stageThreshold>-1.7775224447250366e+00</stageThreshold>
      <weakClassifiers>
        <_>
          <internalNodes>
            0 -1 20 -1 -136326657 -1715994625 -146862625 -804865
            -73944093 -274858049 -1</internalNodes>
          <leafValues>
            -9.5339930057525635e-01 6.6666670143604279e-02</leafValues></_>
        <_>
          <internalNodes>
            0 -1 19 -1073810083 -1092684810 -109849411 2147078331
            -33886211 -1747869442 -71976005 -235667465</internalNodes>
          <leafValues>
            -8.9038491249084473e-01 -1.1316111683845520e-01</leafValues></_>
        <_>
          <internalNodes>
            0 -1 25 -20447826 2104721407 -337654793 -18091874 2044685247
            -370167025 -1079068443 1876320255</internalNodes>
          <leafValues>
            -9.5380419492721558e-01 1.7547357082366943e-01</leafValues></_></weakClassifiers></_></stages>
  <features>
    <_>
      <rect>
        0 0 12 5</rect></_>
    <_>
      <rect>
        0 2 15 11</rect></_>
    <_>
      <rect>
        0 9 10 5</rect></_>
    <_>
      <rect>
        0 14 7 7</rect></_>
    <_>
      <rect>
        3 2 9 7</rect></_>
    <_>
      <rect>
        3 3 11 9</rect></_>
    <_>
      <rect>
        3 3 14 8</rect></_>
    <_>
      <rect>
        3 12 14 6</rect></_>
    <_>
      <rect>
        4 13 5 7</rect></_>
    <_>
      <rect>
        5 8 12 8</rect></_>
    <_>
      <rect>
        6 23 9 4</rect></_>
    <_>
      <rect>
        7 17 7 6</rect></_>
    <_>
      <rect>
        8 5 6 4</rect></_>
    <_>
      <rect>
        9 1 4 9</rect></_>
    <_>
      <rect>
        9 13 11 7</rect></_>
    <_>
      <rect>
        11 18 2 2</rect></_>
    <_>
      <rect>
        12 8 11 9</rect></_>
    <_>
      <rect>
        16 24 2 2</rect></_>
    <_>
      <rect>
        17 2 8 6</rect></_>
    <_>
      <rect>
        18 0 5 2</rect></_>
    <_>
      <rect>
        18 2 9 4</rect></_>
    <_>
      <rect>
        18 4 9 10</rect></_>
    <_>
      <rect>
        18 6 8 3</rect></_>
    <_>
      <rect>
        19 2 8 10</rect></_>
    <_>
      <rect>
        20 0 7 10</rect></_>
    <_>
      <rect>
        20 11 6 6</rect></_>
    <_>
      <rect>
        21 20 4 4</rect></_>
    <_>
      <rect>
        24 4 2 2</rect></_>
    <_>
      <rect>
        24 7 7 7</rect></_>
    <_>
      <rect>
        24 21 7 4</rect></_>
    <_>
      <rect>
        27 7 6 6</rect></_>
    <_>
      <rect>
        27 23 1 2</rect></_>
    <_>
      <rect>
        28 17 3 3</rect></_>
    <_>
      <rect>
        30 5 5 8</rect></_>
    <_>
      <rect>
        38 24 2 1</rect></_>
    <_>
      <rect>
        39 29 2 2</rect></_></features></cascade>
</opencv_storage>
